{
  "sizes": [
    176,
    88,
    176
  ],
  "layers": [
    {
      "0": {},
      "1": {},
      "2": {},
      "3": {},
      "4": {},
      "5": {},
      "6": {},
      "7": {},
      "8": {},
      "9": {},
      "10": {},
      "11": {},
      "12": {},
      "13": {},
      "14": {},
      "15": {},
      "16": {},
      "17": {},
      "18": {},
      "19": {},
      "20": {},
      "21": {},
      "22": {},
      "23": {},
      "24": {},
      "25": {},
      "26": {},
      "27": {},
      "28": {},
      "29": {},
      "30": {},
      "31": {},
      "32": {},
      "33": {},
      "34": {},
      "35": {},
      "36": {},
      "37": {},
      "38": {},
      "39": {},
      "40": {},
      "41": {},
      "42": {},
      "43": {},
      "44": {},
      "45": {},
      "46": {},
      "47": {},
      "48": {},
      "49": {},
      "50": {},
      "51": {},
      "52": {},
      "53": {},
      "54": {},
      "55": {},
      "56": {},
      "57": {},
      "58": {},
      "59": {},
      "60": {},
      "61": {},
      "62": {},
      "63": {},
      "64": {},
      "65": {},
      "66": {},
      "67": {},
      "68": {},
      "69": {},
      "70": {},
      "71": {},
      "72": {},
      "73": {},
      "74": {},
      "75": {},
      "76": {},
      "77": {},
      "78": {},
      "79": {},
      "80": {},
      "81": {},
      "82": {},
      "83": {},
      "84": {},
      "85": {},
      "86": {},
      "87": {},
      "88": {},
      "89": {},
      "90": {},
      "91": {},
      "92": {},
      "93": {},
      "94": {},
      "95": {},
      "96": {},
      "97": {},
      "98": {},
      "99": {},
      "100": {},
      "101": {},
      "102": {},
      "103": {},
      "104": {},
      "105": {},
      "106": {},
      "107": {},
      "108": {},
      "109": {},
      "110": {},
      "111": {},
      "112": {},
      "113": {},
      "114": {},
      "115": {},
      "116": {},
      "117": {},
      "118": {},
      "119": {},
      "120": {},
      "121": {},
      "122": {},
      "123": {},
      "124": {},
      "125": {},
      "126": {},
      "127": {},
      "128": {},
      "129": {},
      "130": {},
      "131": {},
      "132": {},
      "133": {},
      "134": {},
      "135": {},
      "136": {},
      "137": {},
      "138": {},
      "139": {},
      "140": {},
      "141": {},
      "142": {},
      "143": {},
      "144": {},
      "145": {},
      "146": {},
      "147": {},
      "148": {},
      "149": {},
      "150": {},
      "151": {},
      "152": {},
      "153": {},
      "154": {},
      "155": {},
      "156": {},
      "157": {},
      "158": {},
      "159": {},
      "160": {},
      "161": {},
      "162": {},
      "163": {},
      "164": {},
      "165": {},
      "166": {},
      "167": {},
      "168": {},
      "169": {},
      "170": {},
      "171": {},
      "172": {},
      "173": {},
      "174": {},
      "175": {}
    },
    {
      "0": {
        "bias": -0.22908800840377808,
        "weights": {
          "0": -0.1176590621471405,
          "1": -0.14002463221549988,
          "2": 0.011921449564397335,
          "3": -0.04697895795106888,
          "4": -0.1841546893119812,
          "5": 0.05125092715024948,
          "6": 0.11314607411623001,
          "7": -0.1074126660823822,
          "8": 0.20689727365970612,
          "9": -0.006465013604611158,
          "10": -0.05123284459114075,
          "11": -0.1549558937549591,
          "12": -0.07992527633905411,
          "13": -0.1496480256319046,
          "14": -0.10640313476324081,
          "15": 0.0897054523229599,
          "16": -0.12730328738689423,
          "17": -0.27957481145858765,
          "18": 0.04405377432703972,
          "19": 0.05472638085484505,
          "20": -0.07655736058950424,
          "21": 0.16228961944580078,
          "22": 0.016608446836471558,
          "23": -0.1842389851808548,
          "24": 0.012164963409304619,
          "25": 0.11058266460895538,
          "26": -0.09982246160507202,
          "27": -0.15952935814857483,
          "28": -0.172254279255867,
          "29": 0.15569564700126648,
          "30": 0.021038677543401718,
          "31": -0.021004293113946915,
          "32": 0.04730813205242157,
          "33": -0.01952378824353218,
          "34": -0.021621301770210266,
          "35": -0.25522562861442566,
          "36": -0.04197428375482559,
          "37": -0.22284050285816193,
          "38": -0.21194398403167725,
          "39": -0.1342640221118927,
          "40": 0.24688534438610077,
          "41": 0.10057732462882996,
          "42": 0.13210225105285645,
          "43": -0.04569803178310394,
          "44": -0.2117876410484314,
          "45": -0.13511665165424347,
          "46": -0.11432311683893204,
          "47": 0.009767376817762852,
          "48": -0.07450488954782486,
          "49": -0.07575046271085739,
          "50": 0.164061039686203,
          "51": 0.0030320531222969294,
          "52": -0.13200975954532623,
          "53": 0.11444555968046188,
          "54": 0.19543075561523438,
          "55": -0.21234901249408722,
          "56": -0.26064184308052063,
          "57": -0.18837706744670868,
          "58": 0.009909357875585556,
          "59": 0.10384493321180344,
          "60": -0.15904609858989716,
          "61": -0.12211199104785919,
          "62": -0.047845277935266495,
          "63": 0.03200593963265419,
          "64": -0.2766530513763428,
          "65": -0.03901194781064987,
          "66": -0.035867203027009964,
          "67": -0.020391715690493584,
          "68": 0.0649411752820015,
          "69": -0.15657490491867065,
          "70": 0.050463590770959854,
          "71": 0.14983542263507843,
          "72": -0.11181069910526276,
          "73": 0.015133763663470745,
          "74": -0.04237974435091019,
          "75": 0.06243850663304329,
          "76": 0.23810069262981415,
          "77": -0.18328653275966644,
          "78": -0.07668081670999527,
          "79": 0.1541437804698944,
          "80": 0.16380751132965088,
          "81": -0.1366550773382187,
          "82": 0.04404294863343239,
          "83": 0.09541692584753036,
          "84": -0.02146974764764309,
          "85": -0.07799364626407623,
          "86": -0.199058398604393,
          "87": -0.028016425669193268,
          "88": -0.15773199498653412,
          "89": -0.10700482875108719,
          "90": 0.1954464167356491,
          "91": 0.23164379596710205,
          "92": -0.2030659168958664,
          "93": 0.12093055993318558,
          "94": 0.14480243623256683,
          "95": 0.0009379738476127386,
          "96": -0.14443492889404297,
          "97": 0.10853602737188339,
          "98": 0.08494088798761368,
          "99": 0.09359068423509598,
          "100": -0.025709642097353935,
          "101": 0.1716819405555725,
          "102": 0.01414371095597744,
          "103": 0.07849664986133575,
          "104": 0.17885428667068481,
          "105": 0.17575423419475555,
          "106": -0.1016070768237114,
          "107": -0.09813746809959412,
          "108": 0.19926606118679047,
          "109": -0.21924327313899994,
          "110": 0.21004945039749146,
          "111": 0.041278064250946045,
          "112": -0.09009824693202972,
          "113": -0.11279457062482834,
          "114": 0.08978286385536194,
          "115": 0.08571187406778336,
          "116": -0.0346345528960228,
          "117": -0.13360823690891266,
          "118": -0.007293679751455784,
          "119": 0.12707334756851196,
          "120": 0.01896628737449646,
          "121": 0.11077138036489487,
          "122": -0.19804222881793976,
          "123": 0.014946574345231056,
          "124": 0.1596621423959732,
          "125": 0.12464143335819244,
          "126": 0.05766448751091957,
          "127": -0.10947006940841675,
          "128": 0.061023127287626266,
          "129": 0.16613735258579254,
          "130": -0.18257713317871094,
          "131": 0.006235434673726559,
          "132": -0.060068707913160324,
          "133": -0.019747160375118256,
          "134": -0.10663961619138718,
          "135": -0.2552414536476135,
          "136": -0.07542115449905396,
          "137": -0.06753865629434586,
          "138": -0.0750545859336853,
          "139": -0.033787764608860016,
          "140": 0.053427863866090775,
          "141": -0.07077453285455704,
          "142": 0.051237910985946655,
          "143": 0.044666945934295654,
          "144": 0.054092369973659515,
          "145": -0.05229842662811279,
          "146": 0.1832636296749115,
          "147": 0.12647615373134613,
          "148": 0.1427469104528427,
          "149": -0.15890191495418549,
          "150": -0.10741019994020462,
          "151": -0.13103021681308746,
          "152": 0.07627168297767639,
          "153": -0.022023849189281464,
          "154": 0.13446131348609924,
          "155": -0.23053166270256042,
          "156": -0.1714552491903305,
          "157": 0.10002006590366364,
          "158": 0.15766382217407227,
          "159": -0.12333764880895615,
          "160": -0.13711629807949066,
          "161": 0.054242268204689026,
          "162": 0.18578311800956726,
          "163": -0.15398016571998596,
          "164": 0.15100622177124023,
          "165": -0.0685495138168335,
          "166": -0.04000220447778702,
          "167": 0.08829037100076675,
          "168": 0.09135210514068604,
          "169": 0.008063019253313541,
          "170": -0.18846671283245087,
          "171": 0.19150671362876892,
          "172": 0.11549870669841766,
          "173": 0.1615084707736969,
          "174": -0.17696036398410797,
          "175": -0.1004222109913826
        }
      },
      "1": {
        "bias": -0.2389606386423111,
        "weights": {
          "0": -0.01793169416487217,
          "1": -0.27579987049102783,
          "2": -0.13784484565258026,
          "3": -0.2512610852718353,
          "4": 0.16441476345062256,
          "5": 0.06443439424037933,
          "6": 0.017537355422973633,
          "7": -0.015014797449111938,
          "8": 0.012122065760195255,
          "9": -0.28187888860702515,
          "10": -0.04068637266755104,
          "11": -0.010912016965448856,
          "12": -0.03025406040251255,
          "13": -0.024424780160188675,
          "14": -0.020094141364097595,
          "15": -0.2908756732940674,
          "16": 0.06875991076231003,
          "17": 0.012636943720281124,
          "18": 0.0736425593495369,
          "19": -0.019793812185525894,
          "20": 0.11505156010389328,
          "21": 0.0637509897351265,
          "22": 0.024427242577075958,
          "23": 0.016405610367655754,
          "24": -0.2020619958639145,
          "25": 0.06062529236078262,
          "26": -0.012189935892820358,
          "27": -0.12057347595691681,
          "28": 0.05702090635895729,
          "29": -0.15800948441028595,
          "30": -0.21603338420391083,
          "31": -0.1960826814174652,
          "32": -0.02405848540365696,
          "33": 0.029956167563796043,
          "34": -0.16277843713760376,
          "35": 0.08389891684055328,
          "36": -0.03031955473124981,
          "37": -0.14436481893062592,
          "38": -0.11784461885690689,
          "39": -0.01242296863347292,
          "40": 0.10748499631881714,
          "41": -0.039771612733602524,
          "42": 0.12413448095321655,
          "43": 0.2015405148267746,
          "44": 0.13610491156578064,
          "45": 0.1026623323559761,
          "46": -0.07962324470281601,
          "47": -0.01959998905658722,
          "48": 0.00538758747279644,
          "49": -0.14239586889743805,
          "50": 0.19317768514156342,
          "51": -0.15762943029403687,
          "52": 0.06138232350349426,
          "53": -0.04741062968969345,
          "54": 0.2372797280550003,
          "55": -0.16398926079273224,
          "56": 0.06138353794813156,
          "57": 0.044401850551366806,
          "58": 0.13354401290416718,
          "59": -0.23070715367794037,
          "60": -0.08855746686458588,
          "61": -0.07566684484481812,
          "62": -0.10428719967603683,
          "63": -0.18636257946491241,
          "64": 0.013939609751105309,
          "65": 0.1405954509973526,
          "66": -0.011140728369355202,
          "67": -0.17000143229961395,
          "68": -0.19015809893608093,
          "69": -0.15033192932605743,
          "70": 0.05491248890757561,
          "71": -0.04782215878367424,
          "72": -0.027906034141778946,
          "73": -0.05078373849391937,
          "74": 0.10045939683914185,
          "75": 0.16669462621212006,
          "76": 0.09550317376852036,
          "77": 0.05161912366747856,
          "78": 0.14780612289905548,
          "79": -0.19281218945980072,
          "80": 0.022105153650045395,
          "81": -0.11857820302248001,
          "82": 0.021594882011413574,
          "83": -0.12479569017887115,
          "84": -0.24933435022830963,
          "85": -0.13964906334877014,
          "86": -0.026082975789904594,
          "87": 0.14735808968544006,
          "88": -0.1359066516160965,
          "89": 0.1724713295698166,
          "90": 0.07872132956981659,
          "91": 0.09862533956766129,
          "92": -0.22111885249614716,
          "93": 0.09998095035552979,
          "94": -0.016064221039414406,
          "95": 0.07974521070718765,
          "96": -0.17058338224887848,
          "97": -0.1265326887369156,
          "98": 0.013602607883512974,
          "99": -0.20711775124073029,
          "100": 0.14925208687782288,
          "101": -0.004112041089683771,
          "102": 0.22790640592575073,
          "103": -0.06062599644064903,
          "104": -0.08689961582422256,
          "105": -0.11140698194503784,
          "106": -0.06739475578069687,
          "107": 0.09332436323165894,
          "108": 0.13616472482681274,
          "109": -0.04889306426048279,
          "110": -0.0556098073720932,
          "111": 0.08386644721031189,
          "112": 0.1803208589553833,
          "113": -0.03330027684569359,
          "114": 0.23110519349575043,
          "115": -0.11471875011920929,
          "116": 0.16239717602729797,
          "117": 0.18931059539318085,
          "118": -0.10891672968864441,
          "119": -0.12102993577718735,
          "120": 0.09257180243730545,
          "121": -0.1741349995136261,
          "122": -0.04842144623398781,
          "123": -0.0705418661236763,
          "124": 0.16298629343509674,
          "125": -0.10351578891277313,
          "126": 0.10381250083446503,
          "127": -0.04651515558362007,
          "128": 0.006219509057700634,
          "129": 0.1382799595594406,
          "130": -0.17901410162448883,
          "131": -0.028358720242977142,
          "132": 0.0018269733991473913,
          "133": 0.023193970322608948,
          "134": 0.22024084627628326,
          "135": -0.016932718455791473,
          "136": 0.10877601057291031,
          "137": 0.00921115092933178,
          "138": -0.09579899162054062,
          "139": -0.11194371432065964,
          "140": -0.016993869096040726,
          "141": -0.11003131419420242,
          "142": -0.12821975350379944,
          "143": -0.12467850744724274,
          "144": -0.17995545268058777,
          "145": -0.01983789913356304,
          "146": 0.13056053221225739,
          "147": 0.05686163902282715,
          "148": -0.13938558101654053,
          "149": 0.060303956270217896,
          "150": -0.19076955318450928,
          "151": 0.13642655313014984,
          "152": -0.0856044664978981,
          "153": -0.02073095552623272,
          "154": 0.15253964066505432,
          "155": 0.06904958188533783,
          "156": -0.10314497351646423,
          "157": 0.08252240717411041,
          "158": -0.13426731526851654,
          "159": 0.1944621205329895,
          "160": -0.16751860082149506,
          "161": 0.11536708474159241,
          "162": 0.16440138220787048,
          "163": 0.06752202659845352,
          "164": 0.01066791545599699,
          "165": 0.18206089735031128,
          "166": 0.04292216897010803,
          "167": 0.20618996024131775,
          "168": 0.20521065592765808,
          "169": 0.208363875746727,
          "170": -0.0784800723195076,
          "171": -0.06295891106128693,
          "172": 0.20457714796066284,
          "173": -0.06925980746746063,
          "174": -0.17621810734272003,
          "175": -0.10574908554553986
        }
      },
      "2": {
        "bias": -0.07525081932544708,
        "weights": {
          "0": -0.04250755161046982,
          "1": -0.1770428866147995,
          "2": -0.07475432008504868,
          "3": -0.032013215124607086,
          "4": -0.08039548993110657,
          "5": -0.04504397511482239,
          "6": -0.12597963213920593,
          "7": 0.12449393421411514,
          "8": -0.0696784108877182,
          "9": -0.09989243000745773,
          "10": 0.07841742038726807,
          "11": -0.00927042867988348,
          "12": 0.20770372450351715,
          "13": 0.012907871976494789,
          "14": 0.10855522006750107,
          "15": 0.11491388827562332,
          "16": 0.13132598996162415,
          "17": 0.1026386022567749,
          "18": -0.17404256761074066,
          "19": 0.1164173036813736,
          "20": -0.08812657743692398,
          "21": -0.21894042193889618,
          "22": -0.13282302021980286,
          "23": -0.023707233369350433,
          "24": -0.05595875531435013,
          "25": -0.1658071130514145,
          "26": 0.10965438932180405,
          "27": -0.11909761279821396,
          "28": 0.09128082543611526,
          "29": 0.17088112235069275,
          "30": -0.21547725796699524,
          "31": -0.277449369430542,
          "32": 0.09577543288469315,
          "33": 0.07328643649816513,
          "34": -0.18861570954322815,
          "35": -0.10257340222597122,
          "36": 0.09698370844125748,
          "37": -0.0468507781624794,
          "38": -0.09798111766576767,
          "39": 0.03794422000646591,
          "40": 0.21669316291809082,
          "41": -0.08608105778694153,
          "42": -0.201405331492424,
          "43": 0.06954889744520187,
          "44": -0.1239391416311264,
          "45": -0.11632639169692993,
          "46": 0.1396704465150833,
          "47": 0.011731556616723537,
          "48": -0.03184498846530914,
          "49": -0.252705454826355,
          "50": 0.0101193031296134,
          "51": -0.10352097451686859,
          "52": -0.04494725540280342,
          "53": -0.02266984060406685,
          "54": 0.2376083880662918,
          "55": 0.16957566142082214,
          "56": -0.26594918966293335,
          "57": -0.13871634006500244,
          "58": 0.1748136430978775,
          "59": -0.14815708994865417,
          "60": 0.2081589251756668,
          "61": -0.09823159128427505,
          "62": 0.0390455462038517,
          "63": 0.111275814473629,
          "64": -0.13274340331554413,
          "65": -0.19484387338161469,
          "66": 0.0441274493932724,
          "67": 0.1793077439069748,
          "68": 0.11452998220920563,
          "69": -0.054186269640922546,
          "70": 0.011039369739592075,
          "71": 0.10840538144111633,
          "72": 0.2113327980041504,
          "73": 0.1679651290178299,
          "74": 0.028863471001386642,
          "75": -0.12399660050868988,
          "76": 0.19139821827411652,
          "77": 0.28973862528800964,
          "78": -0.10065488517284393,
          "79": -0.14728233218193054,
          "80": 0.0957152247428894,
          "81": 0.13726384937763214,
          "82": 0.09301251173019409,
          "83": -0.2436121255159378,
          "84": 0.13102565705776215,
          "85": 0.07536701112985611,
          "86": -0.05002480372786522,
          "87": 0.17695152759552002,
          "88": -0.26658907532691956,
          "89": 0.14647580683231354,
          "90": -0.08447766304016113,
          "91": -0.20419490337371826,
          "92": -0.2883452773094177,
          "93": -0.2681422829627991,
          "94": -0.2062796950340271,
          "95": 0.16398264467716217,
          "96": -0.1973423808813095,
          "97": -0.19481220841407776,
          "98": -0.17208319902420044,
          "99": -0.10286915302276611,
          "100": 0.020824676379561424,
          "101": -0.03011447563767433,
          "102": 0.15611034631729126,
          "103": 0.16071712970733643,
          "104": 0.16951513290405273,
          "105": 0.1387241631746292,
          "106": 0.07600191235542297,
          "107": 0.1544743925333023,
          "108": -0.10769058018922806,
          "109": 0.03488771617412567,
          "110": -0.01912296563386917,
          "111": -0.16489465534687042,
          "112": 0.06002378463745117,
          "113": 0.0032487947028130293,
          "114": 0.21732275187969208,
          "115": 0.0879191979765892,
          "116": -0.13870643079280853,
          "117": -0.059512920677661896,
          "118": -0.12829278409481049,
          "119": -0.06292816996574402,
          "120": -0.054111942648887634,
          "121": -0.08817024528980255,
          "122": -0.20154094696044922,
          "123": 0.029553433880209923,
          "124": -0.08983352035284042,
          "125": 0.23222535848617554,
          "126": -0.15012523531913757,
          "127": -0.07159825414419174,
          "128": -0.12680451571941376,
          "129": 0.1454615592956543,
          "130": -0.11450495570898056,
          "131": 0.13183972239494324,
          "132": -0.052909303456544876,
          "133": -0.17060409486293793,
          "134": 0.22234536707401276,
          "135": 0.12856602668762207,
          "136": 0.0975966602563858,
          "137": -0.05206820368766785,
          "138": -0.21175995469093323,
          "139": 0.09665358811616898,
          "140": 0.003917722962796688,
          "141": 0.07603080570697784,
          "142": -0.08085621148347855,
          "143": 0.12426434457302094,
          "144": 0.08090846240520477,
          "145": 0.14613161981105804,
          "146": 0.0663837194442749,
          "147": 0.08013038337230682,
          "148": -0.21185088157653809,
          "149": -0.061458244919776917,
          "150": 0.05509576573967934,
          "151": -0.0978970006108284,
          "152": -0.12014424800872803,
          "153": 0.08207890391349792,
          "154": 0.11570218950510025,
          "155": -0.0020019076764583588,
          "156": -0.03250353783369064,
          "157": -0.15236979722976685,
          "158": 0.11828222870826721,
          "159": 0.188028946518898,
          "160": -0.17332051694393158,
          "161": 0.14214996993541718,
          "162": -0.14678779244422913,
          "163": 0.0015236688777804375,
          "164": -0.04762076586484909,
          "165": 0.18019522726535797,
          "166": -0.07359270751476288,
          "167": -0.06814051419496536,
          "168": -0.09080610424280167,
          "169": -0.15932004153728485,
          "170": 0.01872459053993225,
          "171": -0.0695042833685875,
          "172": 0.04842110723257065,
          "173": 0.07950805872678757,
          "174": -0.17342321574687958,
          "175": 0.07465658336877823
        }
      },
      "3": {
        "bias": -0.11991017311811447,
        "weights": {
          "0": 0.013136666268110275,
          "1": -0.08340930938720703,
          "2": -0.23633085191249847,
          "3": -0.22593845427036285,
          "4": -0.01744404062628746,
          "5": 0.07136259973049164,
          "6": -0.0571974441409111,
          "7": -0.08015114068984985,
          "8": -0.11832498013973236,
          "9": -0.15813763439655304,
          "10": 0.11006592214107513,
          "11": 0.04323367029428482,
          "12": -0.09571773558855057,
          "13": 0.11681158095598221,
          "14": -0.11734848469495773,
          "15": 0.00870740506798029,
          "16": -0.04796377941966057,
          "17": -0.29307135939598083,
          "18": 0.19263270497322083,
          "19": -0.19948509335517883,
          "20": -0.1413489133119583,
          "21": -0.21888230741024017,
          "22": -0.02272414043545723,
          "23": -0.12149737030267715,
          "24": -0.07820241153240204,
          "25": -0.15383759140968323,
          "26": -0.04372448846697807,
          "27": 0.06001940742135048,
          "28": 0.1910489797592163,
          "29": 0.17668664455413818,
          "30": -0.19732807576656342,
          "31": -0.32250139117240906,
          "32": 0.006183956284075975,
          "33": 0.04061466082930565,
          "34": -0.06579503417015076,
          "35": -0.19722065329551697,
          "36": -0.2978602647781372,
          "37": 0.09680944681167603,
          "38": -0.16008064150810242,
          "39": 0.09040343761444092,
          "40": 0.10937537252902985,
          "41": -0.13052059710025787,
          "42": -0.16363506019115448,
          "43": -0.0647224560379982,
          "44": -0.10670401155948639,
          "45": 0.11670432239770889,
          "46": -0.05978810787200928,
          "47": -0.03312254324555397,
          "48": 0.14149391651153564,
          "49": 0.049594696611166,
          "50": 0.13058660924434662,
          "51": -0.006301891058683395,
          "52": 0.06922264397144318,
          "53": 0.07711208611726761,
          "54": -0.03654429316520691,
          "55": 0.10728079080581665,
          "56": 0.02549666352570057,
          "57": 0.1592056304216385,
          "58": -0.18798771500587463,
          "59": -0.1755562573671341,
          "60": -0.06749065220355988,
          "61": 0.0033019501715898514,
          "62": -0.23784275352954865,
          "63": 0.07328884303569794,
          "64": -0.11579322814941406,
          "65": -0.1703053116798401,
          "66": -0.03562121093273163,
          "67": 0.13447211682796478,
          "68": -0.12910717725753784,
          "69": 0.05508920177817345,
          "70": -0.1300211250782013,
          "71": 0.09026824682950974,
          "72": -0.08235842734575272,
          "73": 0.019215328618884087,
          "74": -0.05500539019703865,
          "75": 0.1498108059167862,
          "76": 0.1105053648352623,
          "77": 0.11943666636943817,
          "78": -0.1362447887659073,
          "79": 0.1102958470582962,
          "80": 0.013009533286094666,
          "81": -0.19004130363464355,
          "82": 0.04358081892132759,
          "83": -0.053817689418792725,
          "84": -0.15144824981689453,
          "85": 0.1409822404384613,
          "86": -0.24499931931495667,
          "87": -0.006436021067202091,
          "88": 0.03846361115574837,
          "89": -0.11722679436206818,
          "90": 0.017931804060935974,
          "91": 0.16962428390979767,
          "92": 0.1725061684846878,
          "93": -0.06828707456588745,
          "94": 0.21332791447639465,
          "95": -0.02968936786055565,
          "96": 0.1576809287071228,
          "97": -0.14715398848056793,
          "98": 0.09435731172561646,
          "99": -0.00769185833632946,
          "100": -0.18521670997142792,
          "101": 0.0659681037068367,
          "102": 0.082652747631073,
          "103": 0.09560350328683853,
          "104": -0.17668777704238892,
          "105": -0.14491358399391174,
          "106": 0.14836114645004272,
          "107": -0.20755024254322052,
          "108": -0.22461971640586853,
          "109": 0.1258639395236969,
          "110": 0.03639819473028183,
          "111": -0.14980866014957428,
          "112": -0.23473605513572693,
          "113": 0.07097341865301132,
          "114": -0.014546536840498447,
          "115": -0.1313285380601883,
          "116": 0.04282373562455177,
          "117": 0.06655287742614746,
          "118": 0.05046602711081505,
          "119": 0.07970142364501953,
          "120": 0.10009509325027466,
          "121": -0.11034632474184036,
          "122": -0.17845375835895538,
          "123": -0.052715737372636795,
          "124": 0.0636497512459755,
          "125": -0.02171839214861393,
          "126": -0.14049550890922546,
          "127": -0.23029427230358124,
          "128": -0.05906303599476814,
          "129": -0.16554725170135498,
          "130": 0.05742916837334633,
          "131": 0.029848868027329445,
          "132": -0.21486204862594604,
          "133": 0.07835593074560165,
          "134": 0.1687706559896469,
          "135": -0.16133534908294678,
          "136": 0.15376511216163635,
          "137": 0.09036166220903397,
          "138": 0.15092815458774567,
          "139": -0.14315779507160187,
          "140": -0.1339103728532791,
          "141": -0.19313818216323853,
          "142": 0.1733848750591278,
          "143": 0.02595011703670025,
          "144": -0.06409105658531189,
          "145": 0.1280175745487213,
          "146": -0.19029289484024048,
          "147": -0.04152088239789009,
          "148": 0.0466483049094677,
          "149": 0.06703104823827744,
          "150": 0.09523946791887283,
          "151": 0.05163740739226341,
          "152": -0.05668673664331436,
          "153": 0.12752071022987366,
          "154": 0.05272642523050308,
          "155": -0.08276630192995071,
          "156": 0.16045929491519928,
          "157": 0.16350366175174713,
          "158": -0.171709343791008,
          "159": -0.05703876540064812,
          "160": -0.14237013459205627,
          "161": 0.19574527442455292,
          "162": -0.09679164737462997,
          "163": 0.20480988919734955,
          "164": 0.12932443618774414,
          "165": 0.04839656874537468,
          "166": 0.08456405252218246,
          "167": -0.08002140372991562,
          "168": 0.11951391398906708,
          "169": 0.19590741395950317,
          "170": -0.023743536323308945,
          "171": -0.14677999913692474,
          "172": 0.041689254343509674,
          "173": -0.11230023205280304,
          "174": 0.05096616595983505,
          "175": -0.02404787391424179
        }
      },
      "4": {
        "bias": -0.30878058075904846,
        "weights": {
          "0": 0.013407230377197266,
          "1": -0.13738110661506653,
          "2": -0.2524156868457794,
          "3": 0.08874811232089996,
          "4": -0.20211267471313477,
          "5": -0.28657522797584534,
          "6": -0.05388147383928299,
          "7": 0.01796257123351097,
          "8": 0.18647901713848114,
          "9": -0.09677650034427643,
          "10": -0.14846168458461761,
          "11": 0.015814319252967834,
          "12": 0.04912996664643288,
          "13": 0.07672438025474548,
          "14": 0.0658969059586525,
          "15": 0.019952785223722458,
          "16": -0.034235045313835144,
          "17": 0.06496848165988922,
          "18": -0.10556644946336746,
          "19": -0.2135012149810791,
          "20": 0.2032701075077057,
          "21": -0.060364123433828354,
          "22": 0.04650812968611717,
          "23": -0.22943098843097687,
          "24": -0.20395509898662567,
          "25": 0.06008454039692879,
          "26": -0.1496279537677765,
          "27": -0.06196372210979462,
          "28": 0.21427121758460999,
          "29": -0.04485822468996048,
          "30": 0.10197486728429794,
          "31": -0.13895545899868011,
          "32": -0.04645344242453575,
          "33": -0.11688566207885742,
          "34": -0.18921492993831635,
          "35": -0.0971100777387619,
          "36": -0.24277253448963165,
          "37": -0.11175136268138885,
          "38": -0.018134742975234985,
          "39": -0.06012840196490288,
          "40": 0.11739608645439148,
          "41": -0.1522710919380188,
          "42": 0.04061274975538254,
          "43": -0.17512090504169464,
          "44": -0.16512732207775116,
          "45": 0.022010108456015587,
          "46": -0.12294217944145203,
          "47": -0.21890133619308472,
          "48": 0.015080875717103481,
          "49": 0.13080421090126038,
          "50": 0.08457915484905243,
          "51": 0.09470758587121964,
          "52": 0.0749935582280159,
          "53": 0.07850760966539383,
          "54": 0.17680475115776062,
          "55": -0.09496168792247772,
          "56": 0.013024577870965004,
          "57": -0.09361594170331955,
          "58": 0.2506769895553589,
          "59": 0.19330371916294098,
          "60": 0.29426562786102295,
          "61": 0.002345062792301178,
          "62": -0.11893487721681595,
          "63": 0.27283287048339844,
          "64": 0.27865535020828247,
          "65": -0.0069145578891038895,
          "66": 0.23719555139541626,
          "67": -0.03447435423731804,
          "68": 0.18841221928596497,
          "69": -0.022721651941537857,
          "70": -0.190278559923172,
          "71": -0.0348912738263607,
          "72": -0.021272782236337662,
          "73": 0.11094263941049576,
          "74": -0.09496326744556427,
          "75": 0.006192929111421108,
          "76": 0.13350090384483337,
          "77": -0.11745967715978622,
          "78": 0.11776413768529892,
          "79": 0.07817817479372025,
          "80": 0.004957614466547966,
          "81": -0.2916187047958374,
          "82": -0.0330360122025013,
          "83": -0.15444156527519226,
          "84": -0.21090491116046906,
          "85": -0.1791970580816269,
          "86": -0.01241279672831297,
          "87": -0.01577599160373211,
          "88": 0.10873149335384369,
          "89": 0.19635725021362305,
          "90": -0.17096790671348572,
          "91": 0.08513101190328598,
          "92": 0.025893807411193848,
          "93": -0.058654364198446274,
          "94": 0.13532191514968872,
          "95": -0.20091292262077332,
          "96": -0.16166619956493378,
          "97": -0.1350679099559784,
          "98": -0.31092727184295654,
          "99": -0.03541634604334831,
          "100": 0.05773458257317543,
          "101": -0.09272615611553192,
          "102": -0.04861244186758995,
          "103": -0.09325002133846283,
          "104": 0.06808044761419296,
          "105": -0.13223405182361603,
          "106": -0.20696061849594116,
          "107": -0.12966476380825043,
          "108": 0.11654187738895416,
          "109": -0.06626949459314346,
          "110": 0.15559649467468262,
          "111": 0.038396865129470825,
          "112": -0.2037244737148285,
          "113": 0.05745679885149002,
          "114": -0.06168277561664581,
          "115": -0.12620307505130768,
          "116": 0.01394135132431984,
          "117": -0.16150809824466705,
          "118": -0.035124290734529495,
          "119": -0.07228501886129379,
          "120": -0.20487608015537262,
          "121": 0.045924536883831024,
          "122": -0.08045040816068649,
          "123": 0.02323077619075775,
          "124": -0.12469787150621414,
          "125": 0.01640191487967968,
          "126": 0.07440182566642761,
          "127": -0.16221731901168823,
          "128": -0.17629101872444153,
          "129": 0.03495407477021217,
          "130": -0.0772712379693985,
          "131": -0.17059312760829926,
          "132": -0.1028377115726471,
          "133": 0.14081141352653503,
          "134": -0.192163348197937,
          "135": 0.11565311998128891,
          "136": -0.09598325192928314,
          "137": 0.01064461562782526,
          "138": -0.03296302631497383,
          "139": -0.009625810198485851,
          "140": -0.17613783478736877,
          "141": -0.20904023945331573,
          "142": -0.20668308436870575,
          "143": 0.02126793935894966,
          "144": -0.19867749512195587,
          "145": -0.1705634742975235,
          "146": -0.1906999945640564,
          "147": -0.05687936022877693,
          "148": -0.12909354269504547,
          "149": 0.10357674956321716,
          "150": -0.15795083343982697,
          "151": 0.05592856556177139,
          "152": -0.1697007566690445,
          "153": -0.09586130082607269,
          "154": -0.15835711359977722,
          "155": -0.03942069411277771,
          "156": -0.1433759182691574,
          "157": 0.168866828083992,
          "158": 0.09196297079324722,
          "159": -0.03787587955594063,
          "160": 0.11103443801403046,
          "161": 0.20598457753658295,
          "162": -0.12465064972639084,
          "163": 0.15544375777244568,
          "164": 0.07325216382741928,
          "165": -0.005819773301482201,
          "166": 0.0005072131170891225,
          "167": -0.06493080407381058,
          "168": 0.05107296258211136,
          "169": -0.18641552329063416,
          "170": 0.043681636452674866,
          "171": -0.02077445760369301,
          "172": -0.10245461016893387,
          "173": 0.03372276574373245,
          "174": -0.17392538487911224,
          "175": 0.0022448021918535233
        }
      },
      "5": {
        "bias": -0.2516683340072632,
        "weights": {
          "0": -0.042562536895275116,
          "1": -0.06632661819458008,
          "2": 0.010921010747551918,
          "3": 0.1951139122247696,
          "4": -0.11582079529762268,
          "5": 0.12830588221549988,
          "6": -0.1730598360300064,
          "7": -0.003879467723891139,
          "8": 0.12121973931789398,
          "9": -0.024550361558794975,
          "10": -0.1622404009103775,
          "11": -0.08614329993724823,
          "12": 0.08975087106227875,
          "13": -0.15925148129463196,
          "14": -0.23683486878871918,
          "15": -0.029664456844329834,
          "16": -0.13448333740234375,
          "17": -0.0475538894534111,
          "18": -0.23503676056861877,
          "19": 0.1179623007774353,
          "20": -0.19294849038124084,
          "21": -0.027584629133343697,
          "22": 0.08388432115316391,
          "23": 0.049280885607004166,
          "24": 0.28480634093284607,
          "25": -0.11280383169651031,
          "26": 0.024353712797164917,
          "27": -0.09686224162578583,
          "28": 0.1414584368467331,
          "29": 0.07363683730363846,
          "30": -0.16114367544651031,
          "31": -0.24032363295555115,
          "32": 0.2912408411502838,
          "33": 0.13409040868282318,
          "34": -0.022951746359467506,
          "35": 0.04436792805790901,
          "36": -0.21945440769195557,
          "37": 0.02628256194293499,
          "38": 0.06479215621948242,
          "39": 0.13805966079235077,
          "40": 0.3096030056476593,
          "41": 0.07580913603305817,
          "42": 0.09147968143224716,
          "43": -0.02424100786447525,
          "44": 0.0446651354432106,
          "45": -0.2179785519838333,
          "46": -0.19248367846012115,
          "47": -0.28543922305107117,
          "48": -0.39053699374198914,
          "49": -0.09664250910282135,
          "50": -0.09925045818090439,
          "51": 0.001194654731079936,
          "52": -0.34581103920936584,
          "53": -0.2973138988018036,
          "54": -0.031722597777843475,
          "55": -0.15538322925567627,
          "56": -0.20020318031311035,
          "57": -0.08252240717411041,
          "58": -0.05896494910120964,
          "59": -0.22396863996982574,
          "60": -0.1701708436012268,
          "61": -0.09970567375421524,
          "62": -0.2475900501012802,
          "63": 0.04791783541440964,
          "64": 0.06732898950576782,
          "65": -0.1603154093027115,
          "66": -0.08144623786211014,
          "67": 0.06928529590368271,
          "68": 0.12142788618803024,
          "69": -0.13473768532276154,
          "70": 0.03493049740791321,
          "71": 0.16786043345928192,
          "72": 0.24021022021770477,
          "73": -0.15872378647327423,
          "74": 0.14552702009677887,
          "75": 0.13845261931419373,
          "76": 0.18267647922039032,
          "77": 0.023756301030516624,
          "78": 0.18470832705497742,
          "79": 0.08783797174692154,
          "80": 0.06676792353391647,
          "81": 0.06434954702854156,
          "82": -0.22124211490154266,
          "83": -0.22599618136882782,
          "84": -0.02972954325377941,
          "85": -0.1064261645078659,
          "86": -0.22662925720214844,
          "87": -0.031992729753255844,
          "88": -0.07262159138917923,
          "89": -0.18327869474887848,
          "90": -0.1833476722240448,
          "91": -0.10256742686033249,
          "92": -0.0009796996600925922,
          "93": -0.07633701711893082,
          "94": 0.10830079019069672,
          "95": -0.13331979513168335,
          "96": -0.21370543539524078,
          "97": -0.02561700902879238,
          "98": 0.006823431700468063,
          "99": 0.0335005447268486,
          "100": -0.09509081393480301,
          "101": 0.09303991496562958,
          "102": 0.07923131436109543,
          "103": 0.15245255827903748,
          "104": -0.19680479168891907,
          "105": 0.06338068097829819,
          "106": -0.04165340214967728,
          "107": 0.07950590550899506,
          "108": -0.1880715936422348,
          "109": 0.11235114932060242,
          "110": -0.09567230939865112,
          "111": 0.1606602966785431,
          "112": -0.10552599281072617,
          "113": -0.009312843903899193,
          "114": 0.10545610636472702,
          "115": -0.19112589955329895,
          "116": 0.2390276938676834,
          "117": -0.22385014593601227,
          "118": -0.04975665733218193,
          "119": 0.1761195957660675,
          "120": 0.07310189306735992,
          "121": 0.036249544471502304,
          "122": 0.038076695054769516,
          "123": -0.11807689815759659,
          "124": 0.09973055124282837,
          "125": -0.1244698166847229,
          "126": -0.15992148220539093,
          "127": -0.1064511314034462,
          "128": 0.12547387182712555,
          "129": -0.1974005103111267,
          "130": -0.01804633066058159,
          "131": -0.06289494782686234,
          "132": 0.12373342365026474,
          "133": -0.16315728425979614,
          "134": -0.05899043008685112,
          "135": -0.12436205893754959,
          "136": -0.13546641170978546,
          "137": 0.005770564079284668,
          "138": -0.05548597872257233,
          "139": 0.04117514193058014,
          "140": -0.21185867488384247,
          "141": -0.045730311423540115,
          "142": -0.12056197971105576,
          "143": -0.05916261300444603,
          "144": -0.16554945707321167,
          "145": 0.03176527097821236,
          "146": 0.1974114179611206,
          "147": 0.06893210858106613,
          "148": -0.1492525339126587,
          "149": -0.13898561894893646,
          "150": -0.1514393538236618,
          "151": 0.09160233289003372,
          "152": 0.15260106325149536,
          "153": -0.14854514598846436,
          "154": -0.07582400739192963,
          "155": 0.17596332728862762,
          "156": 0.051751069724559784,
          "157": -0.033292029052972794,
          "158": 0.1503979116678238,
          "159": -0.042916323989629745,
          "160": -0.07520078122615814,
          "161": -0.023467324674129486,
          "162": 0.11942766606807709,
          "163": -0.01566791906952858,
          "164": 0.12424270808696747,
          "165": 0.11968562752008438,
          "166": 0.033807720988988876,
          "167": 0.08074897527694702,
          "168": 0.17489421367645264,
          "169": -0.17733775079250336,
          "170": 0.0728534683585167,
          "171": 0.14197441935539246,
          "172": 0.03917369991540909,
          "173": -0.18134239315986633,
          "174": 0.0002001066750381142,
          "175": 0.06222517043352127
        }
      },
      "6": {
        "bias": -0.053388189524412155,
        "weights": {
          "0": -0.0846557542681694,
          "1": -0.2492060661315918,
          "2": 0.12449884414672852,
          "3": -0.14209875464439392,
          "4": 0.023844530805945396,
          "5": 0.06515930593013763,
          "6": -0.22949686646461487,
          "7": 0.10624248534440994,
          "8": 0.20289427042007446,
          "9": -0.33637678623199463,
          "10": -0.15370295941829681,
          "11": 0.17208634316921234,
          "12": 0.12079831212759018,
          "13": 0.06774350255727768,
          "14": 0.0519067719578743,
          "15": 0.0445847362279892,
          "16": 0.2497553825378418,
          "17": -0.0631902888417244,
          "18": -0.13058052957057953,
          "19": 0.13335181772708893,
          "20": 0.11662498861551285,
          "21": 0.13852936029434204,
          "22": -0.144308403134346,
          "23": 0.32284238934516907,
          "24": 0.17388994991779327,
          "25": 0.03209367021918297,
          "26": 0.02459225431084633,
          "27": 0.1681765466928482,
          "28": 0.06551656872034073,
          "29": 0.01691087707877159,
          "30": -0.015414484776556492,
          "31": -0.4743330180644989,
          "32": 0.1521351933479309,
          "33": -0.16260361671447754,
          "34": -0.2686997056007385,
          "35": 0.18582403659820557,
          "36": -0.1782463639974594,
          "37": -0.04163175821304321,
          "38": -0.300044447183609,
          "39": 0.24130305647850037,
          "40": 0.10984329879283905,
          "41": -0.23402169346809387,
          "42": -0.1921180635690689,
          "43": -0.20637816190719604,
          "44": 0.04779398813843727,
          "45": -0.15180371701717377,
          "46": -0.0200533177703619,
          "47": -0.39711418747901917,
          "48": -0.010880890302360058,
          "49": 0.05289477854967117,
          "50": 0.16564829647541046,
          "51": -0.026948338374495506,
          "52": -0.39888647198677063,
          "53": -0.039950624108314514,
          "54": 0.06619657576084137,
          "55": -0.10955915600061417,
          "56": -0.06298044323921204,
          "57": -0.0312824547290802,
          "58": -0.10736966878175735,
          "59": -0.18819426000118256,
          "60": -0.09001000225543976,
          "61": -0.037624623626470566,
          "62": 0.037013277411460876,
          "63": -0.2636618912220001,
          "64": 0.12965716421604156,
          "65": -0.09028831124305725,
          "66": -0.20376743376255035,
          "67": 0.3456566631793976,
          "68": 0.15752172470092773,
          "69": 0.12947237491607666,
          "70": -0.24036656320095062,
          "71": 0.06898718327283859,
          "72": 0.019885679706931114,
          "73": 0.02251814492046833,
          "74": 0.2530338764190674,
          "75": 0.24222280085086823,
          "76": 0.2825063169002533,
          "77": 0.17133496701717377,
          "78": -0.10046831518411636,
          "79": 0.04085998982191086,
          "80": 0.14672698080539703,
          "81": -0.2023630440235138,
          "82": -0.04833336919546127,
          "83": 0.046637244522571564,
          "84": -0.23257847130298615,
          "85": -0.0007236981182359159,
          "86": -0.20574209094047546,
          "87": 0.11331339180469513,
          "88": -0.13628387451171875,
          "89": 0.1469317376613617,
          "90": 0.22117602825164795,
          "91": -0.10793537646532059,
          "92": -0.06749249249696732,
          "93": -0.20818285644054413,
          "94": 0.18991519510746002,
          "95": 0.06438244879245758,
          "96": -0.18862546980381012,
          "97": -0.07318471372127533,
          "98": -0.26067739725112915,
          "99": -0.07948753982782364,
          "100": -0.004457901697605848,
          "101": -0.08472912758588791,
          "102": 0.2469087392091751,
          "103": 0.1385442465543747,
          "104": 0.022457826882600784,
          "105": 0.05701640620827675,
          "106": 0.10083992034196854,
          "107": 0.11925560235977173,
          "108": -0.19279161095619202,
          "109": 0.02838156744837761,
          "110": 0.3082258999347687,
          "111": -0.16055037081241608,
          "112": -0.19120974838733673,
          "113": -0.019686786457896233,
          "114": -0.004048751667141914,
          "115": 0.07046891003847122,
          "116": -0.05074581503868103,
          "117": 0.14107367396354675,
          "118": 0.19855651259422302,
          "119": 0.17443174123764038,
          "120": 0.11957172304391861,
          "121": -0.0343676321208477,
          "122": -0.09912241250276566,
          "123": 0.056356146931648254,
          "124": -0.10369304567575455,
          "125": -0.04824993759393692,
          "126": 0.10548102855682373,
          "127": -0.2168622463941574,
          "128": 0.05212197080254555,
          "129": -0.05451883375644684,
          "130": 0.0988871306180954,
          "131": -0.1387883871793747,
          "132": -0.18290239572525024,
          "133": -0.04054728522896767,
          "134": -0.019124634563922882,
          "135": -0.2535882890224457,
          "136": -0.2403443157672882,
          "137": 0.08645409345626831,
          "138": -0.2575329542160034,
          "139": -0.19065295159816742,
          "140": -0.12436769157648087,
          "141": -0.1650450974702835,
          "142": -0.21149739623069763,
          "143": 0.14303764700889587,
          "144": 0.017162106931209564,
          "145": 0.16984796524047852,
          "146": -0.08973897993564606,
          "147": 0.062226589769124985,
          "148": 0.00991415698081255,
          "149": 0.12955550849437714,
          "150": 0.10646598786115646,
          "151": -0.20749352872371674,
          "152": -0.07996024936437607,
          "153": -0.040117185562849045,
          "154": 0.029287341982126236,
          "155": -0.05427585169672966,
          "156": -0.0723220556974411,
          "157": -0.2182207554578781,
          "158": -0.13388873636722565,
          "159": 0.020998621359467506,
          "160": 0.05605185031890869,
          "161": -0.09316211193799973,
          "162": 0.04898545518517494,
          "163": 0.04721052199602127,
          "164": -0.09883740544319153,
          "165": 0.02107337862253189,
          "166": -0.07513201236724854,
          "167": -0.19123035669326782,
          "168": -0.1599867194890976,
          "169": 0.1377859115600586,
          "170": 0.18060053884983063,
          "171": -0.08592256158590317,
          "172": -0.07551075518131256,
          "173": 0.03332880884408951,
          "174": -0.17872031033039093,
          "175": 0.20189730823040009
        }
      },
      "7": {
        "bias": -0.11599532514810562,
        "weights": {
          "0": 0.0503019280731678,
          "1": -0.2888798415660858,
          "2": -0.17164155840873718,
          "3": -0.10801137983798981,
          "4": -0.17371273040771484,
          "5": 0.01646534539759159,
          "6": -0.2270626574754715,
          "7": 0.09164801985025406,
          "8": -0.12216859310865402,
          "9": -0.11617222428321838,
          "10": -0.2727534770965576,
          "11": -0.02499152347445488,
          "12": -0.05863446742296219,
          "13": 0.1216302216053009,
          "14": -0.0016057469183579087,
          "15": -0.13710397481918335,
          "16": 0.007202791050076485,
          "17": 0.09093490242958069,
          "18": 0.07192500680685043,
          "19": 0.10168782621622086,
          "20": -0.09860923141241074,
          "21": -0.07555413246154785,
          "22": 0.012685160152614117,
          "23": 0.28643885254859924,
          "24": 0.15269993245601654,
          "25": -0.17753861844539642,
          "26": 0.03508339449763298,
          "27": -0.1046953797340393,
          "28": -0.17329685389995575,
          "29": 0.07777775079011917,
          "30": 0.051115483045578,
          "31": -0.15123385190963745,
          "32": 0.2101471871137619,
          "33": -0.22488239407539368,
          "34": -0.24942469596862793,
          "35": -0.041452039033174515,
          "36": 0.10634862631559372,
          "37": 0.07614586502313614,
          "38": -0.1277298927307129,
          "39": 0.23307552933692932,
          "40": 0.16909973323345184,
          "41": 0.020213913172483444,
          "42": 0.08564318716526031,
          "43": -0.030054882168769836,
          "44": -0.05707971006631851,
          "45": -0.16542023420333862,
          "46": 0.037599243223667145,
          "47": -0.214534729719162,
          "48": -0.11480936408042908,
          "49": -0.39409175515174866,
          "50": 0.015599125064909458,
          "51": -0.3670939803123474,
          "52": -0.3318977653980255,
          "53": -0.09618101269006729,
          "54": 0.013321103528141975,
          "55": 0.004361722618341446,
          "56": -0.09131084382534027,
          "57": 0.0927746593952179,
          "58": -0.02838795632123947,
          "59": 0.1649829000234604,
          "60": -0.18211038410663605,
          "61": -0.08916652947664261,
          "62": -0.13857580721378326,
          "63": 0.03161754831671715,
          "64": -0.13217923045158386,
          "65": -0.20064175128936768,
          "66": 0.058415211737155914,
          "67": -0.0553082600235939,
          "68": 0.05256587639451027,
          "69": 0.044825490564107895,
          "70": -0.0979912132024765,
          "71": 0.055858876556158066,
          "72": 0.011316822841763496,
          "73": 0.15263667702674866,
          "74": 0.0069609456695616245,
          "75": 0.30334270000457764,
          "76": 0.0915878638625145,
          "77": -0.03615626320242882,
          "78": 0.07941921800374985,
          "79": -0.14010857045650482,
          "80": 0.039819344878196716,
          "81": 0.08821850270032883,
          "82": 0.09255235642194748,
          "83": -0.12073387950658798,
          "84": -0.05857108533382416,
          "85": -0.0764797255396843,
          "86": -0.07642754912376404,
          "87": 0.17096859216690063,
          "88": 0.02805742248892784,
          "89": -0.13526290655136108,
          "90": -0.128099724650383,
          "91": 0.2139233499765396,
          "92": 0.002707449719309807,
          "93": -0.15515325963497162,
          "94": 0.17486931383609772,
          "95": -0.16934728622436523,
          "96": 0.06001284345984459,
          "97": -0.00392703665420413,
          "98": -0.1582752913236618,
          "99": 0.15022380650043488,
          "100": -0.07862801849842072,
          "101": -0.07601496577262878,
          "102": 0.09257349371910095,
          "103": -0.17500534653663635,
          "104": 0.0560094490647316,
          "105": 0.09473465383052826,
          "106": -0.04491898790001869,
          "107": 0.005544153042137623,
          "108": 0.19172777235507965,
          "109": 0.12004445493221283,
          "110": 0.2712235748767853,
          "111": 0.20038744807243347,
          "112": -0.1803845316171646,
          "113": -0.05848512053489685,
          "114": 0.25096556544303894,
          "115": -0.11872030049562454,
          "116": 0.18944135308265686,
          "117": 0.1632678210735321,
          "118": 0.05452530086040497,
          "119": 0.031963907182216644,
          "120": 0.20409798622131348,
          "121": 0.14293313026428223,
          "122": -0.09807588905096054,
          "123": -0.010371669195592403,
          "124": 0.06846313178539276,
          "125": -0.13901697099208832,
          "126": 0.030891455709934235,
          "127": -0.11663453280925751,
          "128": -0.05750424787402153,
          "129": -0.16162098944187164,
          "130": 0.10206064581871033,
          "131": 0.013811366632580757,
          "132": 0.0629926472902298,
          "133": 0.03988613933324814,
          "134": 0.21142934262752533,
          "135": 0.15296874940395355,
          "136": 0.03806385025382042,
          "137": 0.03442592918872833,
          "138": 0.07331790775060654,
          "139": -0.046288132667541504,
          "140": 0.05478321388363838,
          "141": 0.031721968203783035,
          "142": 0.1398272067308426,
          "143": 0.1699415147304535,
          "144": -0.03129367157816887,
          "145": 0.14011642336845398,
          "146": 0.14631377160549164,
          "147": 0.19146765768527985,
          "148": -0.17813916504383087,
          "149": 0.14216743409633636,
          "150": -0.03203042224049568,
          "151": 0.01743287779390812,
          "152": -0.15726126730442047,
          "153": 0.0363975428044796,
          "154": -0.19598008692264557,
          "155": -0.011385282501578331,
          "156": -0.07532868534326553,
          "157": 0.09199713915586472,
          "158": -0.1892663985490799,
          "159": 0.0814894512295723,
          "160": 0.013665332458913326,
          "161": 0.005429245065897703,
          "162": 0.15530262887477875,
          "163": 0.012383070774376392,
          "164": 0.09664929658174515,
          "165": -0.07325703650712967,
          "166": 0.03776119649410248,
          "167": -0.09495524317026138,
          "168": 0.10979608446359634,
          "169": -0.11812364310026169,
          "170": 0.0801500603556633,
          "171": -0.15615101158618927,
          "172": -0.0980210229754448,
          "173": 0.10040796548128128,
          "174": 0.15016202628612518,
          "175": 0.1406441628932953
        }
      },
      "8": {
        "bias": -0.08073815703392029,
        "weights": {
          "0": -0.050735101103782654,
          "1": -0.18181410431861877,
          "2": -0.22405996918678284,
          "3": -0.05798901617527008,
          "4": 0.16107109189033508,
          "5": -0.14889459311962128,
          "6": -0.1990422010421753,
          "7": 0.08676888048648834,
          "8": -0.038546107709407806,
          "9": 0.18468044698238373,
          "10": 0.07624585926532745,
          "11": -0.06742957979440689,
          "12": -0.12209596484899521,
          "13": -0.19178451597690582,
          "14": -0.02582646533846855,
          "15": 0.054447468370199203,
          "16": -0.2891122102737427,
          "17": -0.0655338242650032,
          "18": -0.006699224468320608,
          "19": -0.02333024889230728,
          "20": -0.10496049374341965,
          "21": -0.19425742328166962,
          "22": -0.0989128053188324,
          "23": -0.15576359629631042,
          "24": 0.1295967549085617,
          "25": -0.06879188865423203,
          "26": -0.07985223829746246,
          "27": -0.2199055701494217,
          "28": 0.0010515192989259958,
          "29": 0.20780396461486816,
          "30": 0.09422904253005981,
          "31": 0.14581723511219025,
          "32": -0.1535329520702362,
          "33": 0.09720204770565033,
          "34": -0.16874630749225616,
          "35": -0.15334351360797882,
          "36": -0.06960801035165787,
          "37": -0.20633727312088013,
          "38": -0.29688823223114014,
          "39": -0.18893158435821533,
          "40": -0.10817790776491165,
          "41": 0.13775797188282013,
          "42": 0.01675507426261902,
          "43": -0.12468506395816803,
          "44": -0.257049560546875,
          "45": 0.08688975125551224,
          "46": -0.11617179214954376,
          "47": -0.1566358506679535,
          "48": 0.06683389097452164,
          "49": -0.022539284080266953,
          "50": -0.017392555251717567,
          "51": -0.2673630118370056,
          "52": -0.10238906741142273,
          "53": -0.23412834107875824,
          "54": 0.06355727463960648,
          "55": -0.19255013763904572,
          "56": -0.11702582985162735,
          "57": -0.044339410960674286,
          "58": -0.17674963176250458,
          "59": -0.15783630311489105,
          "60": -0.20174700021743774,
          "61": -0.14937631785869598,
          "62": -0.03677305579185486,
          "63": 0.1419888734817505,
          "64": 0.059069469571113586,
          "65": -0.0489753894507885,
          "66": -0.023684969171881676,
          "67": -0.11726169288158417,
          "68": 0.20656952261924744,
          "69": 0.004026131704449654,
          "70": 0.00037885457277297974,
          "71": -0.09528658539056778,
          "72": 0.1833147555589676,
          "73": -0.02084466628730297,
          "74": -0.12784546613693237,
          "75": 0.10502056032419205,
          "76": -0.04525718465447426,
          "77": 0.1128464937210083,
          "78": 0.17407441139221191,
          "79": 0.2202022522687912,
          "80": 0.13883176445960999,
          "81": 0.18416008353233337,
          "82": -0.06344162672758102,
          "83": -0.0231541208922863,
          "84": -0.043238576501607895,
          "85": 0.13120967149734497,
          "86": 0.12637081742286682,
          "87": 0.07383754849433899,
          "88": 0.1974950134754181,
          "89": -0.20380258560180664,
          "90": -0.1167667880654335,
          "91": 0.09516311436891556,
          "92": -0.11256861686706543,
          "93": 0.11026322841644287,
          "94": 0.1469419151544571,
          "95": -0.14389687776565552,
          "96": -0.17324072122573853,
          "97": -0.048635393381118774,
          "98": 0.17656123638153076,
          "99": -0.1776585876941681,
          "100": 0.22416912019252777,
          "101": -0.08656196296215057,
          "102": 0.10304523259401321,
          "103": -0.10315387696027756,
          "104": 0.055889833718538284,
          "105": 0.20155392587184906,
          "106": 0.04926527291536331,
          "107": 0.19656045734882355,
          "108": 0.013187693431973457,
          "109": -0.12067321687936783,
          "110": -0.10630398988723755,
          "111": -0.1603960245847702,
          "112": 0.1067926287651062,
          "113": -0.14756907522678375,
          "114": 0.14282432198524475,
          "115": -0.014420891180634499,
          "116": -0.10660478472709656,
          "117": 0.018077639862895012,
          "118": 0.06238286942243576,
          "119": 0.10129686444997787,
          "120": 0.09865300357341766,
          "121": 0.08596702665090561,
          "122": 0.056297194212675095,
          "123": -0.16889537870883942,
          "124": 0.151316836476326,
          "125": 0.22492140531539917,
          "126": 0.13656280934810638,
          "127": 0.01620601676404476,
          "128": -0.1809399127960205,
          "129": 0.13002552092075348,
          "130": -0.008595873601734638,
          "131": 0.05167744308710098,
          "132": -0.054189808666706085,
          "133": 0.04425198957324028,
          "134": -0.03481998294591904,
          "135": -0.15313872694969177,
          "136": 0.09547334164381027,
          "137": 0.029534807428717613,
          "138": -0.0660182312130928,
          "139": 0.17374315857887268,
          "140": -0.18718457221984863,
          "141": -0.06520116329193115,
          "142": -0.16042225062847137,
          "143": 0.10634682327508926,
          "144": -0.07688295096158981,
          "145": 0.005756678991019726,
          "146": 0.20132696628570557,
          "147": 0.20718492567539215,
          "148": 0.19251437485218048,
          "149": 0.18968284130096436,
          "150": -0.10247000306844711,
          "151": 0.11235372722148895,
          "152": 0.07786145806312561,
          "153": 0.11326520144939423,
          "154": -0.11245138943195343,
          "155": -0.04289473965764046,
          "156": 0.10420415550470352,
          "157": 0.0058070337399840355,
          "158": -0.028505275025963783,
          "159": 0.1988316923379898,
          "160": -0.06754310429096222,
          "161": -0.09420564770698547,
          "162": 0.18893544375896454,
          "163": -0.057718101888895035,
          "164": -0.1687256544828415,
          "165": -0.15487058460712433,
          "166": -0.054548606276512146,
          "167": 0.01918560452759266,
          "168": -0.1333828568458557,
          "169": -0.07037799060344696,
          "170": -0.03787476569414139,
          "171": 0.11200351268053055,
          "172": -0.043395400047302246,
          "173": 0.18064498901367188,
          "174": 0.1402081698179245,
          "175": 0.05758699029684067
        }
      },
      "9": {
        "bias": -0.1667804718017578,
        "weights": {
          "0": 0.08192554861307144,
          "1": 0.023266565054655075,
          "2": -0.3079666495323181,
          "3": -0.0018658693879842758,
          "4": 0.18030290305614471,
          "5": -0.29903197288513184,
          "6": 0.09008639305830002,
          "7": 0.13198678195476532,
          "8": 0.31669214367866516,
          "9": -0.21183472871780396,
          "10": -0.12264586985111237,
          "11": -0.13537582755088806,
          "12": -0.029897332191467285,
          "13": 0.1837940216064453,
          "14": -0.07144587486982346,
          "15": -0.08726219832897186,
          "16": -0.046870581805706024,
          "17": 0.026506228372454643,
          "18": 0.03393125906586647,
          "19": -0.14012137055397034,
          "20": 0.04930996894836426,
          "21": -0.13726919889450073,
          "22": -0.06409282237291336,
          "23": 0.05754871293902397,
          "24": 0.04859689995646477,
          "25": -0.01019422896206379,
          "26": -0.11737722158432007,
          "27": -0.12993033230304718,
          "28": -0.06478507071733475,
          "29": 0.07772941142320633,
          "30": 0.07223369926214218,
          "31": -0.30209484696388245,
          "32": 0.1696297973394394,
          "33": -0.044789258390665054,
          "34": -0.1640331894159317,
          "35": -0.19986137747764587,
          "36": -0.22830821573734283,
          "37": -0.25269266963005066,
          "38": -0.12659838795661926,
          "39": -0.008507153950631618,
          "40": -0.08488326519727707,
          "41": 0.08662721514701843,
          "42": -0.24403075873851776,
          "43": -0.036561284214258194,
          "44": -0.2873082160949707,
          "45": -0.1973133087158203,
          "46": -0.19701074063777924,
          "47": -0.033042315393686295,
          "48": -0.2167033702135086,
          "49": 0.02579079195857048,
          "50": 0.0476892814040184,
          "51": -0.029925623908638954,
          "52": 0.06046382337808609,
          "53": 0.054034389555454254,
          "54": 0.14485614001750946,
          "55": 0.18007034063339233,
          "56": -0.310180127620697,
          "57": 0.07961104065179825,
          "58": -0.21556033194065094,
          "59": -0.169509157538414,
          "60": 0.04024653136730194,
          "61": -0.13516055047512054,
          "62": 0.02370544895529747,
          "63": 0.05689197778701782,
          "64": -0.12724293768405914,
          "65": -0.025577813386917114,
          "66": 0.06853614002466202,
          "67": 0.21055971086025238,
          "68": 0.07660955935716629,
          "69": -0.10699515789747238,
          "70": 0.03909652680158615,
          "71": 0.06295537948608398,
          "72": 0.09107232093811035,
          "73": 0.09809685498476028,
          "74": -0.06438671052455902,
          "75": 0.212445929646492,
          "76": 0.18696974217891693,
          "77": 0.06400280445814133,
          "78": -0.20068565011024475,
          "79": 0.11725907772779465,
          "80": 0.001181382336653769,
          "81": -0.20086431503295898,
          "82": 0.007379901595413685,
          "83": -0.2745218575000763,
          "84": -0.014695405960083008,
          "85": 0.18291334807872772,
          "86": -0.004066925961524248,
          "87": 0.14192332327365875,
          "88": -0.03149598836898804,
          "89": -0.07386988401412964,
          "90": -0.07696201652288437,
          "91": -0.09370341151952744,
          "92": 0.08587174862623215,
          "93": -0.02582913637161255,
          "94": 0.0026139123365283012,
          "95": 0.0055794380605220795,
          "96": -0.17536421120166779,
          "97": 0.20375758409500122,
          "98": 0.03923716023564339,
          "99": 0.09492162615060806,
          "100": 0.08313337713479996,
          "101": 0.22379115223884583,
          "102": 0.1730588972568512,
          "103": 0.03506837785243988,
          "104": 0.20635026693344116,
          "105": -0.1657419204711914,
          "106": -0.025803690776228905,
          "107": 0.13446968793869019,
          "108": -0.09344732016324997,
          "109": 0.023400090634822845,
          "110": 0.1102517768740654,
          "111": -0.17240208387374878,
          "112": -0.04149569198489189,
          "113": -0.04494870826601982,
          "114": 0.23103025555610657,
          "115": -0.047700583934783936,
          "116": -0.013230602256953716,
          "117": 0.15831218659877777,
          "118": 0.2102329283952713,
          "119": 0.05052536353468895,
          "120": -0.16129052639007568,
          "121": 0.12003084272146225,
          "122": -0.052751574665308,
          "123": 0.11108372360467911,
          "124": -0.1257081776857376,
          "125": 0.0993732288479805,
          "126": -0.08827834576368332,
          "127": -0.013993392698466778,
          "128": -0.09342591464519501,
          "129": 0.06653856486082077,
          "130": -0.21955978870391846,
          "131": -0.18291528522968292,
          "132": -0.01363062672317028,
          "133": -0.09341544657945633,
          "134": 0.16399145126342773,
          "135": 0.019868211820721626,
          "136": -0.21510456502437592,
          "137": -0.22221510112285614,
          "138": -0.07363021373748779,
          "139": -0.0861964225769043,
          "140": -0.16849662363529205,
          "141": 0.022827934473752975,
          "142": 0.13232013583183289,
          "143": -0.052271436899900436,
          "144": -0.08930667489767075,
          "145": -0.12952379882335663,
          "146": 0.10683504492044449,
          "147": -0.08422776311635971,
          "148": 0.015804877504706383,
          "149": 0.05261145532131195,
          "150": -0.1872517466545105,
          "151": 0.0672696903347969,
          "152": -0.0037403153255581856,
          "153": -0.21720844507217407,
          "154": 0.10830171406269073,
          "155": -0.029605092480778694,
          "156": 0.1058180183172226,
          "157": 0.11758340150117874,
          "158": -0.11579951643943787,
          "159": 0.14547394216060638,
          "160": -0.05993669107556343,
          "161": -0.023777496069669724,
          "162": -0.18199214339256287,
          "163": 0.05003570765256882,
          "164": -0.12087762355804443,
          "165": -0.073079414665699,
          "166": 0.04750494658946991,
          "167": -0.10224726796150208,
          "168": 0.020987113937735558,
          "169": -0.08549066632986069,
          "170": -0.1152971088886261,
          "171": 0.14616502821445465,
          "172": 0.18651260435581207,
          "173": -0.01795833557844162,
          "174": 0.05397063121199608,
          "175": 0.10695435851812363
        }
      },
      "10": {
        "bias": -0.09138931334018707,
        "weights": {
          "0": -0.006949765607714653,
          "1": 0.14505183696746826,
          "2": 0.06250875443220139,
          "3": 0.11359834671020508,
          "4": 0.2765074372291565,
          "5": -0.09143267571926117,
          "6": -0.16120272874832153,
          "7": 0.16557975113391876,
          "8": 0.06381406635046005,
          "9": 0.02326163277029991,
          "10": -0.11903628706932068,
          "11": -0.1063196137547493,
          "12": 0.2509769797325134,
          "13": -0.026495685800909996,
          "14": 0.16781114041805267,
          "15": 0.016703255474567413,
          "16": 0.003262385493144393,
          "17": -0.12676730751991272,
          "18": 0.04157833755016327,
          "19": 0.11719343811273575,
          "20": -0.2446480691432953,
          "21": -0.02214319258928299,
          "22": 0.017420923337340355,
          "23": 0.14437103271484375,
          "24": -0.1297282576560974,
          "25": 0.17058566212654114,
          "26": -0.03520523011684418,
          "27": -0.13111642003059387,
          "28": 0.004526617005467415,
          "29": -0.07095825672149658,
          "30": 0.07505611330270767,
          "31": -0.24141985177993774,
          "32": 0.1621604859828949,
          "33": -0.13505248725414276,
          "34": -0.19713038206100464,
          "35": -0.10021182149648666,
          "36": -0.31927043199539185,
          "37": -0.17471982538700104,
          "38": -0.2851010262966156,
          "39": 0.2076566517353058,
          "40": -0.07398346811532974,
          "41": -0.1371614784002304,
          "42": 0.001002429984509945,
          "43": 0.045216914266347885,
          "44": 0.1718185395002365,
          "45": -0.020907973870635033,
          "46": 0.10534834861755371,
          "47": -0.12831544876098633,
          "48": -0.2785113453865051,
          "49": -0.25503358244895935,
          "50": -0.1736074537038803,
          "51": 0.0439743772149086,
          "52": -0.3158576488494873,
          "53": -0.0007848546956665814,
          "54": -0.08581916242837906,
          "55": -0.15668058395385742,
          "56": -0.27447861433029175,
          "57": -0.07393348962068558,
          "58": -0.20932206511497498,
          "59": -0.29683175683021545,
          "60": -0.15233789384365082,
          "61": -0.033513691276311874,
          "62": -0.33864930272102356,
          "63": -0.050103675574064255,
          "64": 0.07107730209827423,
          "65": 0.1776474267244339,
          "66": 0.04359810799360275,
          "67": 0.16561956703662872,
          "68": 0.11686653643846512,
          "69": 0.19945207238197327,
          "70": -0.0013803114416077733,
          "71": 0.015432384796440601,
          "72": -0.05942113324999809,
          "73": -0.17867153882980347,
          "74": -0.012242397293448448,
          "75": -0.021095598116517067,
          "76": 0.13262952864170074,
          "77": -0.05572613328695297,
          "78": -0.0790463462471962,
          "79": -0.14422376453876495,
          "80": -0.14624793827533722,
          "81": 0.05763250216841698,
          "82": 0.1325216442346573,
          "83": -0.13789913058280945,
          "84": -0.19340714812278748,
          "85": 0.15380911529064178,
          "86": -0.25406405329704285,
          "87": -0.12208408862352371,
          "88": 0.05750264972448349,
          "89": 0.12729798257350922,
          "90": 0.14585676789283752,
          "91": -0.026812568306922913,
          "92": -0.2561433017253876,
          "93": 0.06638089567422867,
          "94": 0.18973489105701447,
          "95": -0.15746256709098816,
          "96": -0.018200181424617767,
          "97": -0.0023311253171414137,
          "98": -0.09296631813049316,
          "99": -0.06321582943201065,
          "100": 0.09233585000038147,
          "101": 0.040210623294115067,
          "102": -0.040214020758867264,
          "103": 0.09218000620603561,
          "104": -0.15206673741340637,
          "105": -0.24368591606616974,
          "106": -0.1030905619263649,
          "107": -0.04708247631788254,
          "108": 0.16422860324382782,
          "109": 0.06244486942887306,
          "110": 0.03122413530945778,
          "111": -0.004874208476394415,
          "112": 0.15572308003902435,
          "113": 0.10068516433238983,
          "114": 0.02664535865187645,
          "115": -0.02543272264301777,
          "116": 0.028828566893935204,
          "117": -0.18327483534812927,
          "118": -0.08212311565876007,
          "119": 0.1730145514011383,
          "120": 0.20566529035568237,
          "121": -0.17884303629398346,
          "122": -0.1712426096200943,
          "123": 0.14152786135673523,
          "124": 0.10662347823381424,
          "125": -0.023704377934336662,
          "126": 0.05141062289476395,
          "127": -0.16378842294216156,
          "128": -0.1698380708694458,
          "129": 0.18071965873241425,
          "130": 0.14419201016426086,
          "131": 0.0417294017970562,
          "132": 0.12385070323944092,
          "133": -0.17631252110004425,
          "134": 0.12540623545646667,
          "135": -0.22607421875,
          "136": -0.2039559781551361,
          "137": -0.04674506187438965,
          "138": 0.14758577942848206,
          "139": 0.06069397181272507,
          "140": 0.08483482152223587,
          "141": -0.15450327098369598,
          "142": -0.123679019510746,
          "143": -0.13282376527786255,
          "144": 0.0858466699719429,
          "145": -0.009932192042469978,
          "146": -0.1010323166847229,
          "147": 0.055077534168958664,
          "148": 0.13031943142414093,
          "149": -0.10946376621723175,
          "150": 0.0018554890993982553,
          "151": 0.019340531900525093,
          "152": -0.06268993020057678,
          "153": -0.20115125179290771,
          "154": 0.020070815458893776,
          "155": -0.17748728394508362,
          "156": -0.10103010386228561,
          "157": -0.21570439636707306,
          "158": -0.06630256026983261,
          "159": -0.010456270538270473,
          "160": 0.12340681999921799,
          "161": -0.15100596845149994,
          "162": 0.07670219987630844,
          "163": -0.035873882472515106,
          "164": 0.05399484559893608,
          "165": -0.009388072416186333,
          "166": -0.06039290130138397,
          "167": 0.10633700340986252,
          "168": -0.05681280046701431,
          "169": -0.1600102335214615,
          "170": 0.11728928238153458,
          "171": 0.0376923531293869,
          "172": -0.19661542773246765,
          "173": -0.03175030276179314,
          "174": 0.07540076971054077,
          "175": -0.19745402038097382
        }
      },
      "11": {
        "bias": -0.11827681958675385,
        "weights": {
          "0": -0.2324606478214264,
          "1": -0.11499635875225067,
          "2": -0.18623776733875275,
          "3": 0.02390395849943161,
          "4": 0.14931127429008484,
          "5": 0.10305629670619965,
          "6": -0.08391191065311432,
          "7": -0.17663592100143433,
          "8": 0.2527145743370056,
          "9": 0.019116679206490517,
          "10": 0.10680194944143295,
          "11": 0.1186794638633728,
          "12": 0.025758875533938408,
          "13": -0.03992779180407524,
          "14": -0.039543550461530685,
          "15": 0.06398138403892517,
          "16": -0.08652349561452866,
          "17": 0.02958299219608307,
          "18": 0.01174170058220625,
          "19": 0.09802545607089996,
          "20": 0.0070894877426326275,
          "21": 0.03280346468091011,
          "22": -0.08358077704906464,
          "23": -0.043392520397901535,
          "24": -0.009960443712770939,
          "25": -0.23611325025558472,
          "26": -0.048144448548555374,
          "27": -0.02392330951988697,
          "28": -0.1757526993751526,
          "29": -0.14102408289909363,
          "30": -0.27618035674095154,
          "31": -0.1221265122294426,
          "32": -0.08633441478013992,
          "33": -0.3181402087211609,
          "34": -0.30517375469207764,
          "35": -0.1289960891008377,
          "36": -0.17707136273384094,
          "37": -0.14801490306854248,
          "38": -0.24763624370098114,
          "39": 0.07762450724840164,
          "40": 0.20815598964691162,
          "41": -0.1366390585899353,
          "42": -0.28385207056999207,
          "43": 0.06524475663900375,
          "44": 0.0038550791796296835,
          "45": 0.04434870183467865,
          "46": 0.03502987325191498,
          "47": 0.07492681592702866,
          "48": -0.24463540315628052,
          "49": -0.14159469306468964,
          "50": 0.10200566053390503,
          "51": -0.2247164100408554,
          "52": -0.05600963905453682,
          "53": -0.17455776035785675,
          "54": -0.09660879522562027,
          "55": 0.013330666348338127,
          "56": -0.05395616590976715,
          "57": 0.051515720784664154,
          "58": 0.07114947587251663,
          "59": -0.05449841544032097,
          "60": 0.12580862641334534,
          "61": -0.11910224705934525,
          "62": 0.016580834984779358,
          "63": -0.16105984151363373,
          "64": -0.07805666327476501,
          "65": -0.14521555602550507,
          "66": -0.20010657608509064,
          "67": 0.07145075500011444,
          "68": -0.04246918857097626,
          "69": 0.11007963865995407,
          "70": -0.33332768082618713,
          "71": 0.17580899596214294,
          "72": 0.15578748285770416,
          "73": 0.014359962195158005,
          "74": 0.009380949661135674,
          "75": -0.021220922470092773,
          "76": -0.03603467717766762,
          "77": -0.2023899257183075,
          "78": -0.1552855372428894,
          "79": 0.08316424489021301,
          "80": -0.013210027478635311,
          "81": -0.18806752562522888,
          "82": -0.0004752721288241446,
          "83": -0.0006346030859276652,
          "84": 0.007880101911723614,
          "85": 0.11525125056505203,
          "86": -0.0173665639013052,
          "87": 0.21206317842006683,
          "88": -0.03289400413632393,
          "89": 0.08837587386369705,
          "90": 0.2019445300102234,
          "91": 0.22966307401657104,
          "92": -0.21578872203826904,
          "93": -0.15326811373233795,
          "94": 0.18112532794475555,
          "95": -0.18225759267807007,
          "96": 0.11840986460447311,
          "97": 0.07989418506622314,
          "98": -0.09844382852315903,
          "99": 0.1139383390545845,
          "100": -0.06030954793095589,
          "101": -0.19175668060779572,
          "102": 0.25900188088417053,
          "103": 0.1299898326396942,
          "104": 0.09156183153390884,
          "105": -0.06468399614095688,
          "106": -0.10445761680603027,
          "107": 0.13591551780700684,
          "108": -0.04461982846260071,
          "109": 0.162894144654274,
          "110": 0.07305596023797989,
          "111": 0.1183033287525177,
          "112": 0.02295711450278759,
          "113": 0.15108397603034973,
          "114": 0.0497676357626915,
          "115": -0.1788531094789505,
          "116": 0.016663098707795143,
          "117": 0.19944778084754944,
          "118": 0.0456923209130764,
          "119": 0.1776995062828064,
          "120": 0.12947894632816315,
          "121": -0.049813151359558105,
          "122": 0.19303911924362183,
          "123": -0.07149361819028854,
          "124": 0.18539994955062866,
          "125": 0.07714029401540756,
          "126": 0.08081906288862228,
          "127": 0.08967368304729462,
          "128": 0.03845157474279404,
          "129": 0.2026919275522232,
          "130": -0.16418199241161346,
          "131": -0.13581642508506775,
          "132": -0.13241684436798096,
          "133": 0.08765500783920288,
          "134": 0.11246568709611893,
          "135": 0.08194153010845184,
          "136": 0.11756059527397156,
          "137": -0.199449360370636,
          "138": -0.0862996056675911,
          "139": -0.11221260577440262,
          "140": -0.2295568585395813,
          "141": 0.0258429404348135,
          "142": -0.19323967397212982,
          "143": -0.05146116390824318,
          "144": -0.1621309071779251,
          "145": 0.0019337922567501664,
          "146": 0.06342407315969467,
          "147": -0.06977945566177368,
          "148": 0.1465359926223755,
          "149": -0.03549354895949364,
          "150": -0.14612111449241638,
          "151": 0.12198349088430405,
          "152": 0.13973648846149445,
          "153": -0.1730121672153473,
          "154": -0.03355126827955246,
          "155": 0.049360938370227814,
          "156": -0.18169113993644714,
          "157": 0.02292684279382229,
          "158": -0.10505323857069016,
          "159": -0.11094511300325394,
          "160": 0.06423485279083252,
          "161": 0.15350866317749023,
          "162": 0.17997121810913086,
          "163": -0.12013301253318787,
          "164": -0.10390917211771011,
          "165": 0.13343805074691772,
          "166": -0.12909576296806335,
          "167": 0.0974932387471199,
          "168": 0.007523030042648315,
          "169": 0.13796265423297882,
          "170": 0.20660018920898438,
          "171": -0.016832685098052025,
          "172": 0.08062897622585297,
          "173": 0.0844440907239914,
          "174": 0.16109544038772583,
          "175": -0.0056291669607162476
        }
      },
      "12": {
        "bias": -0.08001252263784409,
        "weights": {
          "0": -0.21663348376750946,
          "1": -0.07801871746778488,
          "2": 0.10576756298542023,
          "3": 0.003635331755504012,
          "4": 0.05827409774065018,
          "5": -0.23250344395637512,
          "6": 0.003147315699607134,
          "7": -0.12448207288980484,
          "8": 0.14646291732788086,
          "9": -0.06776244938373566,
          "10": -0.07137403637170792,
          "11": -0.12824416160583496,
          "12": -0.08051221072673798,
          "13": -0.17732678353786469,
          "14": -0.03102043829858303,
          "15": -0.08106762170791626,
          "16": 0.06062851473689079,
          "17": 0.030509833246469498,
          "18": -0.14050529897212982,
          "19": -0.08424092084169388,
          "20": 0.0065317521803081036,
          "21": -0.07364016026258469,
          "22": 0.14384369552135468,
          "23": -0.21271072328090668,
          "24": 0.08064162731170654,
          "25": -0.1574116051197052,
          "26": -0.13295908272266388,
          "27": -0.08804847300052643,
          "28": -0.12679775059223175,
          "29": 0.07394398748874664,
          "30": -0.1522214412689209,
          "31": -0.23156464099884033,
          "32": -0.12146180868148804,
          "33": 0.02616145648062229,
          "34": 0.03457329794764519,
          "35": 0.009910552762448788,
          "36": 0.07322967052459717,
          "37": -0.2130059450864792,
          "38": 0.04750863090157509,
          "39": 0.07990173250436783,
          "40": -0.11760599911212921,
          "41": 0.018658149987459183,
          "42": -0.07724843919277191,
          "43": -0.22753481566905975,
          "44": -0.11156808584928513,
          "45": -0.025951899588108063,
          "46": -0.20075063407421112,
          "47": -0.03508751839399338,
          "48": -0.08279982209205627,
          "49": -0.2748349905014038,
          "50": -0.09969322383403778,
          "51": 0.0441562719643116,
          "52": -0.33450567722320557,
          "53": -0.20285946130752563,
          "54": -0.05483728647232056,
          "55": -0.09358826279640198,
          "56": -0.2500534951686859,
          "57": 0.09657949954271317,
          "58": 0.05699874460697174,
          "59": 0.013549945317208767,
          "60": -0.12132558226585388,
          "61": -0.06185247749090195,
          "62": -0.2870023250579834,
          "63": 0.06797944009304047,
          "64": -0.24101263284683228,
          "65": 0.04662422463297844,
          "66": -0.12882907688617706,
          "67": 0.09767267107963562,
          "68": 0.13627803325653076,
          "69": 0.04157374054193497,
          "70": 0.06455758213996887,
          "71": 0.14486704766750336,
          "72": -0.024459179490804672,
          "73": -0.06779446452856064,
          "74": 0.0710594579577446,
          "75": -0.0943622812628746,
          "76": 0.13943247497081757,
          "77": 0.2272113561630249,
          "78": -0.15635834634304047,
          "79": 0.045222122222185135,
          "80": -0.13684476912021637,
          "81": -0.00005435159619082697,
          "82": 0.11817049980163574,
          "83": -0.014877121895551682,
          "84": 0.07280106097459793,
          "85": -0.14470401406288147,
          "86": -0.20290818810462952,
          "87": 0.22832396626472473,
          "88": -0.05765209347009659,
          "89": -0.09577099233865738,
          "90": 0.21619948744773865,
          "91": -0.13704559206962585,
          "92": -0.24635876715183258,
          "93": -0.14776574075222015,
          "94": 0.05273808166384697,
          "95": -0.11833437532186508,
          "96": -0.007626716513186693,
          "97": -0.1511547863483429,
          "98": 0.0008507897728122771,
          "99": -0.23898953199386597,
          "100": -0.2076643407344818,
          "101": 0.038706932216882706,
          "102": -0.11226826161146164,
          "103": -0.059827521443367004,
          "104": 0.055017199367284775,
          "105": 0.09115628153085709,
          "106": -0.1533452868461609,
          "107": 0.10273469984531403,
          "108": 0.0755850300192833,
          "109": -0.14686143398284912,
          "110": 0.20000456273555756,
          "111": 0.06628849357366562,
          "112": -0.05395466834306717,
          "113": 0.08273419737815857,
          "114": -0.04895858094096184,
          "115": 0.03774648532271385,
          "116": 0.18773753941059113,
          "117": 0.17546677589416504,
          "118": 0.19854708015918732,
          "119": 0.22048410773277283,
          "120": 0.051720015704631805,
          "121": 0.0925590768456459,
          "122": 0.18990497291088104,
          "123": 0.13813669979572296,
          "124": 0.165947824716568,
          "125": -0.11402230709791183,
          "126": -0.05379649996757507,
          "127": 0.09322449564933777,
          "128": -0.12626585364341736,
          "129": -0.03983607143163681,
          "130": 0.20582528412342072,
          "131": -0.18401464819908142,
          "132": -0.1463170051574707,
          "133": 0.022427352145314217,
          "134": 0.18086832761764526,
          "135": -0.09242355078458786,
          "136": 0.024502472952008247,
          "137": 0.1243913546204567,
          "138": -0.13863173127174377,
          "139": -0.013125196099281311,
          "140": -0.1398421972990036,
          "141": 0.04794943705201149,
          "142": 0.14957275986671448,
          "143": 0.09704915434122086,
          "144": -0.02590916119515896,
          "145": -0.0935155376791954,
          "146": 0.047263599932193756,
          "147": 0.13771843910217285,
          "148": -0.01753654144704342,
          "149": -0.05718972161412239,
          "150": 0.15847600996494293,
          "151": -0.04355965554714203,
          "152": -0.09200359880924225,
          "153": -0.00543440505862236,
          "154": -0.1423814594745636,
          "155": 0.1766895353794098,
          "156": 0.0414893664419651,
          "157": -0.1374794840812683,
          "158": 0.08845685422420502,
          "159": 0.14296561479568481,
          "160": -0.03095700964331627,
          "161": 0.1499604433774948,
          "162": 0.025456374511122704,
          "163": 0.1896658092737198,
          "164": 0.087073415517807,
          "165": -0.07218565046787262,
          "166": 0.12673541903495789,
          "167": 0.10586646944284439,
          "168": -0.06555236130952835,
          "169": 0.07156219333410263,
          "170": -0.0601205937564373,
          "171": -0.10033038258552551,
          "172": 0.20303717255592346,
          "173": 0.13457615673542023,
          "174": 0.19821041822433472,
          "175": -0.08931011706590652
        }
      },
      "13": {
        "bias": -0.07238928228616714,
        "weights": {
          "0": -0.1801377534866333,
          "1": -0.1522761583328247,
          "2": 0.10706713795661926,
          "3": -0.17440292239189148,
          "4": 0.0281467717140913,
          "5": -0.2337241917848587,
          "6": -0.16004125773906708,
          "7": 0.05230092257261276,
          "8": 0.10185170918703079,
          "9": -0.2525538504123688,
          "10": -0.10045210272073746,
          "11": -0.039149727672338486,
          "12": 0.3814603388309479,
          "13": 0.12808115780353546,
          "14": -0.09294285625219345,
          "15": 0.015005470253527164,
          "16": 0.2592202425003052,
          "17": -0.21095536649227142,
          "18": 0.016052184626460075,
          "19": 0.1570279598236084,
          "20": -0.04784683138132095,
          "21": 0.14224249124526978,
          "22": 0.13832004368305206,
          "23": 0.37747788429260254,
          "24": 0.3684542179107666,
          "25": -0.24484498798847198,
          "26": -0.214755117893219,
          "27": 0.1582411676645279,
          "28": 0.25428473949432373,
          "29": -0.13576671481132507,
          "30": -0.09967450052499771,
          "31": -0.1688261330127716,
          "32": 0.09958060085773468,
          "33": -0.18113042414188385,
          "34": -0.08558397740125656,
          "35": -0.04514596611261368,
          "36": 0.09439408034086227,
          "37": -0.006067331414669752,
          "38": -0.22017672657966614,
          "39": -0.13805681467056274,
          "40": 0.17792955040931702,
          "41": 0.13010476529598236,
          "42": 0.06077098473906517,
          "43": -0.02033226378262043,
          "44": -0.0858960896730423,
          "45": -0.3705712556838989,
          "46": -0.0396130196750164,
          "47": -0.28136682510375977,
          "48": -0.4330744743347168,
          "49": -0.14855410158634186,
          "50": 0.0525517575442791,
          "51": -0.23524914681911469,
          "52": -0.2863030433654785,
          "53": -0.06796921789646149,
          "54": -0.2082432061433792,
          "55": -0.13050393760204315,
          "56": -0.4597737789154053,
          "57": -0.0069663687609136105,
          "58": 0.20151092112064362,
          "59": -0.1097882017493248,
          "60": -0.11524078994989395,
          "61": 0.10172973573207855,
          "62": -0.10067497938871384,
          "63": 0.12318918853998184,
          "64": 0.12610368430614471,
          "65": 0.06838388741016388,
          "66": -0.24124987423419952,
          "67": 0.18391354382038116,
          "68": 0.2740381956100464,
          "69": -0.045524489134550095,
          "70": -0.1289595365524292,
          "71": 0.087236687541008,
          "72": 0.06623484939336777,
          "73": 0.017632437869906425,
          "74": 0.14292621612548828,
          "75": 0.03069133125245571,
          "76": 0.23427115380764008,
          "77": 0.13672202825546265,
          "78": -0.09749428182840347,
          "79": 0.1156206876039505,
          "80": -0.053164806216955185,
          "81": 0.13383588194847107,
          "82": -0.14560538530349731,
          "83": 0.12779277563095093,
          "84": -0.11855841428041458,
          "85": 0.12593770027160645,
          "86": -0.2746468186378479,
          "87": 0.10237357020378113,
          "88": -0.22119516134262085,
          "89": -0.0678473562002182,
          "90": 0.259091854095459,
          "91": -0.01944601535797119,
          "92": -0.07457208633422852,
          "93": -0.008905993774533272,
          "94": 0.11447175592184067,
          "95": -0.2361931949853897,
          "96": -0.14885155856609344,
          "97": -0.16161267459392548,
          "98": -0.21564598381519318,
          "99": 0.015302186831831932,
          "100": -0.20554475486278534,
          "101": -0.1425090879201889,
          "102": 0.102927066385746,
          "103": -0.09990113973617554,
          "104": 0.07749173045158386,
          "105": -0.023499151691794395,
          "106": -0.09884947538375854,
          "107": -0.1237625777721405,
          "108": 0.1722821593284607,
          "109": -0.16121584177017212,
          "110": 0.06759031862020493,
          "111": 0.01920454576611519,
          "112": 0.13453997671604156,
          "113": -0.020545870065689087,
          "114": -0.07927879691123962,
          "115": -0.06250713020563126,
          "116": 0.07049790024757385,
          "117": -0.14057639241218567,
          "118": 0.2250509262084961,
          "119": 0.11098019778728485,
          "120": 0.13835729658603668,
          "121": 0.03848820552229881,
          "122": 0.263501912355423,
          "123": 0.1648605465888977,
          "124": -0.030988935381174088,
          "125": -0.07636868208646774,
          "126": 0.21051059663295746,
          "127": 0.08220914006233215,
          "128": -0.13112810254096985,
          "129": 0.03645812347531319,
          "130": 0.11127351224422455,
          "131": -0.14561370015144348,
          "132": -0.24155326187610626,
          "133": -0.0918540433049202,
          "134": -0.17163269221782684,
          "135": -0.10398051142692566,
          "136": -0.18262936174869537,
          "137": 0.10178358107805252,
          "138": -0.19874168932437897,
          "139": -0.16752521693706512,
          "140": -0.01205062959343195,
          "141": -0.25155916810035706,
          "142": -0.029484478756785393,
          "143": -0.0042806402780115604,
          "144": -0.22120356559753418,
          "145": -0.031208539381623268,
          "146": -0.1888500601053238,
          "147": -0.14234697818756104,
          "148": -0.1319679617881775,
          "149": -0.1398896425962448,
          "150": 0.03553715720772743,
          "151": -0.08860667794942856,
          "152": -0.043744418770074844,
          "153": 0.12415062636137009,
          "154": -0.10449375212192535,
          "155": -0.007369302213191986,
          "156": -0.1413060426712036,
          "157": -0.1904481202363968,
          "158": 0.06432171911001205,
          "159": 0.02662082202732563,
          "160": 0.025774536654353142,
          "161": 0.10062951594591141,
          "162": 0.053077567368745804,
          "163": 0.0305942352861166,
          "164": -0.060491885989904404,
          "165": -0.07144587486982346,
          "166": 0.13563236594200134,
          "167": -0.1777045875787735,
          "168": 0.028115930035710335,
          "169": 0.034606173634529114,
          "170": -0.004842943046241999,
          "171": 0.06734707951545715,
          "172": 0.17046554386615753,
          "173": 0.1670188456773758,
          "174": -0.14935563504695892,
          "175": -0.044317349791526794
        }
      },
      "14": {
        "bias": -0.18802659213542938,
        "weights": {
          "0": 0.03053433820605278,
          "1": -0.21436890959739685,
          "2": -0.20351219177246094,
          "3": -0.08853019773960114,
          "4": -0.13110555708408356,
          "5": 0.031949952244758606,
          "6": 0.08733656257390976,
          "7": -0.11891087889671326,
          "8": 0.21568317711353302,
          "9": -0.3260442316532135,
          "10": -0.21261830627918243,
          "11": -0.25409770011901855,
          "12": 0.13279753923416138,
          "13": 0.16337567567825317,
          "14": -0.0058469693176448345,
          "15": -0.12353517860174179,
          "16": -0.07519713789224625,
          "17": -0.14144310355186462,
          "18": -0.005133576691150665,
          "19": -0.025528276339173317,
          "20": -0.11440746486186981,
          "21": -0.061552923172712326,
          "22": -0.12798458337783813,
          "23": 0.03923121094703674,
          "24": 0.22866709530353546,
          "25": -0.19700676202774048,
          "26": 0.1937723159790039,
          "27": -0.022678103297948837,
          "28": -0.030299769714474678,
          "29": -0.0547490157186985,
          "30": -0.09953253716230392,
          "31": -0.03283500671386719,
          "32": -0.04346131160855293,
          "33": 0.20241007208824158,
          "34": -0.26486122608184814,
          "35": 0.1195298358798027,
          "36": 0.17073138058185577,
          "37": 0.050487421452999115,
          "38": 0.3421080708503723,
          "39": 0.06775658577680588,
          "40": 0.2865486145019531,
          "41": -0.030631184577941895,
          "42": -0.014621391892433167,
          "43": -0.13197989761829376,
          "44": -0.15663465857505798,
          "45": 0.06302835792303085,
          "46": -0.09034118801355362,
          "47": -0.06435150653123856,
          "48": 0.07033570110797882,
          "49": -0.09361269325017929,
          "50": 0.20663906633853912,
          "51": 0.14110058546066284,
          "52": -0.07346569746732712,
          "53": -0.06870522350072861,
          "54": 0.06457774341106415,
          "55": 0.06156487762928009,
          "56": -0.06888984888792038,
          "57": -0.005067876074463129,
          "58": -0.004540726542472839,
          "59": -0.003120868932455778,
          "60": 0.09135749191045761,
          "61": 0.032765086740255356,
          "62": -0.04612637683749199,
